digraph Tree {
node [shape=box, style="rounded", color="black", fontname=helvetica] ;
edge [fontname=helvetica] ;
0 [label="AccountNo <= 7939620.0\ngini = 0.2\nsamples = 1144\nvalue = [1611, 201]"] ;
1 [label="AccountNo <= 7897192.0\ngini = 0.2\nsamples = 1079\nvalue = [1529, 173]"] ;
0 -> 1 [labeldistance=2.5, labelangle=45, headlabel="True"] ;
2 [label="Age <= 61.5\ngini = 0.2\nsamples = 1037\nvalue = [1466, 172]"] ;
1 -> 2 ;
3 [label="Age <= 23.5\ngini = 0.2\nsamples = 1021\nvalue = [1451, 161]"] ;
2 -> 3 ;
4 [label="TransactionAmount <= 0.0\ngini = 0.2\nsamples = 384\nvalue = [533, 73]"] ;
3 -> 4 ;
5 [label="AccountNo <= 7803433.5\ngini = 0.5\nsamples = 69\nvalue = [61, 54]"] ;
4 -> 5 ;
6 [label="Age <= 22.5\ngini = 0.5\nsamples = 57\nvalue = [56, 40]"] ;
5 -> 6 ;
7 [label="AccountNo <= 7676257.5\ngini = 0.5\nsamples = 55\nvalue = [56, 36]"] ;
6 -> 7 ;
8 [label="Age <= 15.5\ngini = 0.5\nsamples = 27\nvalue = [15, 24]"] ;
7 -> 8 ;
9 [label="Age <= 12.5\ngini = 0.4\nsamples = 20\nvalue = [8, 23]"] ;
8 -> 9 ;
10 [label="AccountNo <= 7544688.5\ngini = 0.5\nsamples = 12\nvalue = [7, 9]"] ;
9 -> 10 ;
11 [label="HouseTypeID <= 0.5\ngini = 0.3\nsamples = 6\nvalue = [2, 8]"] ;
10 -> 11 ;
12 [label="gini = 0.0\nsamples = 5\nvalue = [0, 8]"] ;
11 -> 12 ;
13 [label="gini = 0.0\nsamples = 1\nvalue = [2, 0]"] ;
11 -> 13 ;
14 [label="Age <= 3.5\ngini = 0.3\nsamples = 6\nvalue = [5, 1]"] ;
10 -> 14 ;
15 [label="gini = 0.5\nsamples = 2\nvalue = [1, 1]"] ;
14 -> 15 ;
16 [label="gini = 0.0\nsamples = 4\nvalue = [4, 0]"] ;
14 -> 16 ;
17 [label="CardExpiryDate <= 2056.0\ngini = 0.1\nsamples = 8\nvalue = [1, 14]"] ;
9 -> 17 ;
18 [label="Gender <= 0.5\ngini = 0.4\nsamples = 4\nvalue = [1, 3]"] ;
17 -> 18 ;
19 [label="gini = 0.0\nsamples = 3\nvalue = [0, 3]"] ;
18 -> 19 ;
20 [label="gini = 0.0\nsamples = 1\nvalue = [1, 0]"] ;
18 -> 20 ;
21 [label="gini = 0.0\nsamples = 4\nvalue = [0, 11]"] ;
17 -> 21 ;
22 [label="CIF <= 11237601.0\ngini = 0.2\nsamples = 7\nvalue = [7, 1]"] ;
8 -> 22 ;
23 [label="gini = 0.0\nsamples = 5\nvalue = [6, 0]"] ;
22 -> 23 ;
24 [label="CardExpiryDate <= 2057.0\ngini = 0.5\nsamples = 2\nvalue = [1, 1]"] ;
22 -> 24 ;
25 [label="gini = 0.0\nsamples = 1\nvalue = [0, 1]"] ;
24 -> 25 ;
26 [label="gini = 0.0\nsamples = 1\nvalue = [1, 0]"] ;
24 -> 26 ;
27 [label="CIF <= 11082341.5\ngini = 0.4\nsamples = 28\nvalue = [41, 12]"] ;
7 -> 27 ;
28 [label="CIF <= 10926666.5\ngini = 0.5\nsamples = 8\nvalue = [6, 9]"] ;
27 -> 28 ;
29 [label="ContactAvaliabilityID <= 1.5\ngini = 0.4\nsamples = 3\nvalue = [4, 2]"] ;
28 -> 29 ;
30 [label="gini = 0.0\nsamples = 1\nvalue = [1, 0]"] ;
29 -> 30 ;
31 [label="CIF <= 10849748.0\ngini = 0.5\nsamples = 2\nvalue = [3, 2]"] ;
29 -> 31 ;
32 [label="gini = 0.0\nsamples = 1\nvalue = [0, 2]"] ;
31 -> 32 ;
33 [label="gini = 0.0\nsamples = 1\nvalue = [3, 0]"] ;
31 -> 33 ;
34 [label="gini = 0.3\nsamples = 5\nvalue = [2, 7]"] ;
28 -> 34 ;
35 [label="CardExpiryDate <= 2102.5\ngini = 0.1\nsamples = 20\nvalue = [35, 3]"] ;
27 -> 35 ;
36 [label="HouseTypeID <= 0.5\ngini = 0.2\nsamples = 13\nvalue = [22, 3]"] ;
35 -> 36 ;
37 [label="gini = 0.0\nsamples = 2\nvalue = [4, 0]"] ;
36 -> 37 ;
38 [label="AccountNo <= 7676664.5\ngini = 0.2\nsamples = 11\nvalue = [18, 3]"] ;
36 -> 38 ;
39 [label="gini = 0.3\nsamples = 9\nvalue = [12, 3]"] ;
38 -> 39 ;
40 [label="gini = 0.0\nsamples = 2\nvalue = [6, 0]"] ;
38 -> 40 ;
41 [label="gini = 0.0\nsamples = 7\nvalue = [13, 0]"] ;
35 -> 41 ;
42 [label="gini = 0.0\nsamples = 2\nvalue = [0, 4]"] ;
6 -> 42 ;
43 [label="HouseTypeID <= 0.5\ngini = 0.4\nsamples = 12\nvalue = [5, 14]"] ;
5 -> 43 ;
44 [label="AccountNo <= 7863087.5\ngini = 0.5\nsamples = 4\nvalue = [4, 3]"] ;
43 -> 44 ;
45 [label="gini = 0.0\nsamples = 1\nvalue = [0, 2]"] ;
44 -> 45 ;
46 [label="CIF <= 11305769.5\ngini = 0.3\nsamples = 3\nvalue = [4, 1]"] ;
44 -> 46 ;
47 [label="gini = 0.0\nsamples = 2\nvalue = [4, 0]"] ;
46 -> 47 ;
48 [label="gini = 0.0\nsamples = 1\nvalue = [0, 1]"] ;
46 -> 48 ;
49 [label="CardExpiryDate <= 2105.5\ngini = 0.2\nsamples = 8\nvalue = [1, 11]"] ;
43 -> 49 ;
50 [label="gini = 0.0\nsamples = 2\nvalue = [0, 4]"] ;
49 -> 50 ;
51 [label="AccountNo <= 7832256.0\ngini = 0.2\nsamples = 6\nvalue = [1, 7]"] ;
49 -> 51 ;
52 [label="gini = 0.0\nsamples = 1\nvalue = [1, 0]"] ;
51 -> 52 ;
53 [label="gini = 0.0\nsamples = 5\nvalue = [0, 7]"] ;
51 -> 53 ;
54 [label="CardExpiryDate <= 2102.5\ngini = 0.1\nsamples = 315\nvalue = [472, 19]"] ;
4 -> 54 ;
55 [label="ContactAvaliabilityID <= 0.5\ngini = 0.1\nsamples = 148\nvalue = [213, 15]"] ;
54 -> 55 ;
56 [label="AccountNo <= 7670445.0\ngini = 0.2\nsamples = 60\nvalue = [77, 11]"] ;
55 -> 56 ;
57 [label="HouseTypeID <= 0.5\ngini = 0.1\nsamples = 37\nvalue = [50, 2]"] ;
56 -> 57 ;
58 [label="gini = 0.0\nsamples = 16\nvalue = [24, 0]"] ;
57 -> 58 ;
59 [label="CardExpiryDate <= 2010.5\ngini = 0.1\nsamples = 21\nvalue = [26, 2]"] ;
57 -> 59 ;
60 [label="TransactionAmount <= 14.5\ngini = 0.3\nsamples = 8\nvalue = [7, 2]"] ;
59 -> 60 ;
61 [label="gini = 0.0\nsamples = 6\nvalue = [6, 0]"] ;
60 -> 61 ;
62 [label="TransactionAmount <= 26.7\ngini = 0.4\nsamples = 2\nvalue = [1, 2]"] ;
60 -> 62 ;
63 [label="gini = 0.0\nsamples = 1\nvalue = [0, 2]"] ;
62 -> 63 ;
64 [label="gini = 0.0\nsamples = 1\nvalue = [1, 0]"] ;
62 -> 64 ;
65 [label="gini = 0.0\nsamples = 13\nvalue = [19, 0]"] ;
59 -> 65 ;
66 [label="AccountNo <= 7676664.5\ngini = 0.4\nsamples = 23\nvalue = [27, 9]"] ;
56 -> 66 ;
67 [label="AccountNo <= 7676257.5\ngini = 0.5\nsamples = 9\nvalue = [5, 9]"] ;
66 -> 67 ;
68 [label="Age <= 18.0\ngini = 0.4\nsamples = 7\nvalue = [3, 7]"] ;
67 -> 68 ;
69 [label="TransactionAmount <= 99.2\ngini = 0.4\nsamples = 4\nvalue = [2, 4]"] ;
68 -> 69 ;
70 [label="gini = 0.5\nsamples = 3\nvalue = [2, 3]"] ;
69 -> 70 ;
71 [label="gini = 0.0\nsamples = 1\nvalue = [0, 1]"] ;
69 -> 71 ;
72 [label="TransactionAmount <= 18.6\ngini = 0.4\nsamples = 3\nvalue = [1, 3]"] ;
68 -> 72 ;
73 [label="gini = 0.0\nsamples = 1\nvalue = [1, 0]"] ;
72 -> 73 ;
74 [label="gini = 0.0\nsamples = 2\nvalue = [0, 3]"] ;
72 -> 74 ;
75 [label="TransactionAmount <= 10.5\ngini = 0.5\nsamples = 2\nvalue = [2, 2]"] ;
67 -> 75 ;
76 [label="gini = 0.0\nsamples = 1\nvalue = [2, 0]"] ;
75 -> 76 ;
77 [label="gini = 0.0\nsamples = 1\nvalue = [0, 2]"] ;
75 -> 77 ;
78 [label="gini = 0.0\nsamples = 14\nvalue = [22, 0]"] ;
66 -> 78 ;
79 [label="TransactionAmount <= 1.6\ngini = 0.1\nsamples = 88\nvalue = [136, 4]"] ;
55 -> 79 ;
80 [label="HouseTypeID <= 0.5\ngini = 0.4\nsamples = 3\nvalue = [3, 1]"] ;
79 -> 80 ;
81 [label="CIF <= 11258486.0\ngini = 0.4\nsamples = 2\nvalue = [2, 1]"] ;
80 -> 81 ;
82 [label="gini = 0.0\nsamples = 1\nvalue = [2, 0]"] ;
81 -> 82 ;
83 [label="gini = 0.0\nsamples = 1\nvalue = [0, 1]"] ;
81 -> 83 ;
84 [label="gini = 0.0\nsamples = 1\nvalue = [1, 0]"] ;
80 -> 84 ;
85 [label="ProductID <= 2.5\ngini = 0.0\nsamples = 85\nvalue = [133, 3]"] ;
79 -> 85 ;
86 [label="gini = 0.0\nsamples = 25\nvalue = [43, 0]"] ;
85 -> 86 ;
87 [label="Age <= 5.5\ngini = 0.1\nsamples = 60\nvalue = [90, 3]"] ;
85 -> 87 ;
88 [label="AccountNo <= 4296666.5\ngini = 0.2\nsamples = 16\nvalue = [20, 2]"] ;
87 -> 88 ;
89 [label="TransactionAmount <= 93.0\ngini = 0.4\nsamples = 3\nvalue = [2, 1]"] ;
88 -> 89 ;
90 [label="gini = 0.0\nsamples = 1\nvalue = [0, 1]"] ;
89 -> 90 ;
91 [label="gini = 0.0\nsamples = 2\nvalue = [2, 0]"] ;
89 -> 91 ;
92 [label="Gender <= 0.5\ngini = 0.1\nsamples = 13\nvalue = [18, 1]"] ;
88 -> 92 ;
93 [label="TransactionAmount <= 46.5\ngini = 0.2\nsamples = 8\nvalue = [11, 1]"] ;
92 -> 93 ;
94 [label="CardExpiryDate <= 2010.5\ngini = 0.3\nsamples = 3\nvalue = [4, 1]"] ;
93 -> 94 ;
95 [label="gini = 0.0\nsamples = 1\nvalue = [1, 0]"] ;
94 -> 95 ;
96 [label="TransactionAmount <= 20.6\ngini = 0.4\nsamples = 2\nvalue = [3, 1]"] ;
94 -> 96 ;
97 [label="gini = 0.0\nsamples = 1\nvalue = [3, 0]"] ;
96 -> 97 ;
98 [label="gini = 0.0\nsamples = 1\nvalue = [0, 1]"] ;
96 -> 98 ;
99 [label="gini = 0.0\nsamples = 5\nvalue = [7, 0]"] ;
93 -> 99 ;
100 [label="gini = 0.0\nsamples = 5\nvalue = [7, 0]"] ;
92 -> 100 ;
101 [label="Age <= 21.0\ngini = 0.0\nsamples = 44\nvalue = [70, 1]"] ;
87 -> 101 ;
102 [label="gini = 0.0\nsamples = 39\nvalue = [64, 0]"] ;
101 -> 102 ;
103 [label="TransactionAmount <= 21.7\ngini = 0.2\nsamples = 5\nvalue = [6, 1]"] ;
101 -> 103 ;
104 [label="gini = 0.0\nsamples = 2\nvalue = [3, 0]"] ;
103 -> 104 ;
105 [label="AccountNo <= 7685913.5\ngini = 0.4\nsamples = 3\nvalue = [3, 1]"] ;
103 -> 105 ;
106 [label="gini = 0.0\nsamples = 1\nvalue = [0, 1]"] ;
105 -> 106 ;
107 [label="gini = 0.0\nsamples = 2\nvalue = [3, 0]"] ;
105 -> 107 ;
108 [label="ContactAvaliabilityID <= 0.5\ngini = 0.0\nsamples = 167\nvalue = [259, 4]"] ;
54 -> 108 ;
109 [label="Age <= 22.0\ngini = 0.1\nsamples = 28\nvalue = [39, 3]"] ;
108 -> 109 ;
110 [label="Age <= 5.5\ngini = 0.1\nsamples = 25\nvalue = [37, 2]"] ;
109 -> 110 ;
111 [label="gini = 0.0\nsamples = 11\nvalue = [19, 0]"] ;
110 -> 111 ;
112 [label="AccountNo <= 7795089.5\ngini = 0.2\nsamples = 14\nvalue = [18, 2]"] ;
110 -> 112 ;
113 [label="Gender <= 0.5\ngini = 0.4\nsamples = 5\nvalue = [5, 2]"] ;
112 -> 113 ;
114 [label="CardExpiryDate <= 2104.0\ngini = 0.5\nsamples = 3\nvalue = [2, 2]"] ;
113 -> 114 ;
115 [label="gini = 0.0\nsamples = 2\nvalue = [2, 0]"] ;
114 -> 115 ;
116 [label="gini = 0.0\nsamples = 1\nvalue = [0, 2]"] ;
114 -> 116 ;
117 [label="gini = 0.0\nsamples = 2\nvalue = [3, 0]"] ;
113 -> 117 ;
118 [label="gini = 0.0\nsamples = 9\nvalue = [13, 0]"] ;
112 -> 118 ;
119 [label="TransactionAmount <= 7.7\ngini = 0.4\nsamples = 3\nvalue = [2, 1]"] ;
109 -> 119 ;
120 [label="gini = 0.0\nsamples = 1\nvalue = [1, 0]"] ;
119 -> 120 ;
121 [label="TransactionAmount <= 13.0\ngini = 0.5\nsamples = 2\nvalue = [1, 1]"] ;
119 -> 121 ;
122 [label="gini = 0.0\nsamples = 1\nvalue = [0, 1]"] ;
121 -> 122 ;
123 [label="gini = 0.0\nsamples = 1\nvalue = [1, 0]"] ;
121 -> 123 ;
124 [label="CIF <= 11305769.5\ngini = 0.0\nsamples = 139\nvalue = [220, 1]"] ;
108 -> 124 ;
125 [label="gini = 0.0\nsamples = 137\nvalue = [219, 0]"] ;
124 -> 125 ;
126 [label="TransactionAmount <= 29.4\ngini = 0.5\nsamples = 2\nvalue = [1, 1]"] ;
124 -> 126 ;
127 [label="gini = 0.0\nsamples = 1\nvalue = [1, 0]"] ;
126 -> 127 ;
128 [label="gini = 0.0\nsamples = 1\nvalue = [0, 1]"] ;
126 -> 128 ;
129 [label="TransactionAmount <= 0.0\ngini = 0.2\nsamples = 637\nvalue = [918, 88]"] ;
3 -> 129 ;
130 [label="ProductID <= 2.5\ngini = 0.4\nsamples = 85\nvalue = [86, 41]"] ;
129 -> 130 ;
131 [label="gini = 0.0\nsamples = 6\nvalue = [10, 0]"] ;
130 -> 131 ;
132 [label="AccountNo <= 7789641.0\ngini = 0.5\nsamples = 79\nvalue = [76, 41]"] ;
130 -> 132 ;
133 [label="CIF <= 11268447.5\ngini = 0.4\nsamples = 62\nvalue = [67, 27]"] ;
132 -> 133 ;
134 [label="ContactAvaliabilityID <= 1.5\ngini = 0.4\nsamples = 55\nvalue = [64, 21]"] ;
133 -> 134 ;
135 [label="CIF <= 11252511.5\ngini = 0.3\nsamples = 38\nvalue = [48, 13]"] ;
134 -> 135 ;
136 [label="AccountNo <= 7676303.5\ngini = 0.4\nsamples = 27\nvalue = [31, 13]"] ;
135 -> 136 ;
137 [label="ContactAvaliabilityID <= 0.5\ngini = 0.5\nsamples = 18\nvalue = [15, 13]"] ;
136 -> 137 ;
138 [label="CIF <= 10979988.5\ngini = 0.5\nsamples = 10\nvalue = [8, 8]"] ;
137 -> 138 ;
139 [label="gini = 0.0\nsamples = 2\nvalue = [0, 4]"] ;
138 -> 139 ;
140 [label="AccountNo <= 7672220.5\ngini = 0.4\nsamples = 8\nvalue = [8, 4]"] ;
138 -> 140 ;
141 [label="CardExpiryDate <= 2010.5\ngini = 0.3\nsamples = 6\nvalue = [8, 2]"] ;
140 -> 141 ;
142 [label="gini = 0.0\nsamples = 2\nvalue = [3, 0]"] ;
141 -> 142 ;
143 [label="AccountNo <= 7587993.5\ngini = 0.4\nsamples = 4\nvalue = [5, 2]"] ;
141 -> 143 ;
144 [label="gini = 0.5\nsamples = 2\nvalue = [2, 2]"] ;
143 -> 144 ;
145 [label="gini = 0.0\nsamples = 2\nvalue = [3, 0]"] ;
143 -> 145 ;
146 [label="gini = 0.0\nsamples = 2\nvalue = [0, 2]"] ;
140 -> 146 ;
147 [label="CIF <= 10920965.5\ngini = 0.5\nsamples = 8\nvalue = [7, 5]"] ;
137 -> 147 ;
148 [label="gini = 0.0\nsamples = 2\nvalue = [2, 0]"] ;
147 -> 148 ;
149 [label="HouseTypeID <= 0.5\ngini = 0.5\nsamples = 6\nvalue = [5, 5]"] ;
147 -> 149 ;
150 [label="CIF <= 11219727.0\ngini = 0.3\nsamples = 4\nvalue = [1, 5]"] ;
149 -> 150 ;
151 [label="AccountNo <= 7153963.5\ngini = 0.4\nsamples = 2\nvalue = [1, 2]"] ;
150 -> 151 ;
152 [label="gini = 0.0\nsamples = 1\nvalue = [0, 2]"] ;
151 -> 152 ;
153 [label="gini = 0.0\nsamples = 1\nvalue = [1, 0]"] ;
151 -> 153 ;
154 [label="gini = 0.0\nsamples = 2\nvalue = [0, 3]"] ;
150 -> 154 ;
155 [label="gini = 0.0\nsamples = 2\nvalue = [4, 0]"] ;
149 -> 155 ;
156 [label="gini = 0.0\nsamples = 9\nvalue = [16, 0]"] ;
136 -> 156 ;
157 [label="gini = 0.0\nsamples = 11\nvalue = [17, 0]"] ;
135 -> 157 ;
158 [label="CIF <= 10896321.0\ngini = 0.4\nsamples = 17\nvalue = [16, 8]"] ;
134 -> 158 ;
159 [label="gini = 0.0\nsamples = 3\nvalue = [0, 3]"] ;
158 -> 159 ;
160 [label="Age <= 30.5\ngini = 0.4\nsamples = 14\nvalue = [16, 5]"] ;
158 -> 160 ;
161 [label="gini = 0.0\nsamples = 1\nvalue = [0, 1]"] ;
160 -> 161 ;
162 [label="Gender <= 0.5\ngini = 0.3\nsamples = 13\nvalue = [16, 4]"] ;
160 -> 162 ;
163 [label="AccountNo <= 7661589.5\ngini = 0.4\nsamples = 9\nvalue = [9, 4]"] ;
162 -> 163 ;
164 [label="gini = 0.0\nsamples = 6\nvalue = [9, 0]"] ;
163 -> 164 ;
165 [label="gini = 0.0\nsamples = 3\nvalue = [0, 4]"] ;
163 -> 165 ;
166 [label="gini = 0.0\nsamples = 4\nvalue = [7, 0]"] ;
162 -> 166 ;
167 [label="CIF <= 11271239.5\ngini = 0.4\nsamples = 7\nvalue = [3, 6]"] ;
133 -> 167 ;
168 [label="gini = 0.0\nsamples = 4\nvalue = [0, 6]"] ;
167 -> 168 ;
169 [label="gini = 0.0\nsamples = 3\nvalue = [3, 0]"] ;
167 -> 169 ;
170 [label="Gender <= 0.5\ngini = 0.5\nsamples = 17\nvalue = [9, 14]"] ;
132 -> 170 ;
171 [label="CardExpiryDate <= 2106.5\ngini = 0.4\nsamples = 12\nvalue = [4, 12]"] ;
170 -> 171 ;
172 [label="HouseTypeID <= 0.5\ngini = 0.5\nsamples = 6\nvalue = [4, 5]"] ;
171 -> 172 ;
173 [label="AccountNo <= 7848058.5\ngini = 0.5\nsamples = 3\nvalue = [2, 3]"] ;
172 -> 173 ;
174 [label="CIF <= 11240928.0\ngini = 0.4\nsamples = 2\nvalue = [2, 1]"] ;
173 -> 174 ;
175 [label="gini = 0.0\nsamples = 1\nvalue = [0, 1]"] ;
174 -> 175 ;
176 [label="gini = 0.0\nsamples = 1\nvalue = [2, 0]"] ;
174 -> 176 ;
177 [label="gini = 0.0\nsamples = 1\nvalue = [0, 2]"] ;
173 -> 177 ;
178 [label="CIF <= 11270914.0\ngini = 0.5\nsamples = 3\nvalue = [2, 2]"] ;
172 -> 178 ;
179 [label="gini = 0.0\nsamples = 1\nvalue = [1, 0]"] ;
178 -> 179 ;
180 [label="Age <= 44.0\ngini = 0.4\nsamples = 2\nvalue = [1, 2]"] ;
178 -> 180 ;
181 [label="gini = 0.0\nsamples = 1\nvalue = [1, 0]"] ;
180 -> 181 ;
182 [label="gini = 0.0\nsamples = 1\nvalue = [0, 2]"] ;
180 -> 182 ;
183 [label="gini = 0.0\nsamples = 6\nvalue = [0, 7]"] ;
171 -> 183 ;
184 [label="CardExpiryDate <= 2106.0\ngini = 0.4\nsamples = 5\nvalue = [5, 2]"] ;
170 -> 184 ;
185 [label="Age <= 36.5\ngini = 0.4\nsamples = 2\nvalue = [1, 2]"] ;
184 -> 185 ;
186 [label="gini = 0.0\nsamples = 1\nvalue = [0, 2]"] ;
185 -> 186 ;
187 [label="gini = 0.0\nsamples = 1\nvalue = [1, 0]"] ;
185 -> 187 ;
188 [label="gini = 0.0\nsamples = 3\nvalue = [4, 0]"] ;
184 -> 188 ;
189 [label="Gender <= 0.5\ngini = 0.1\nsamples = 552\nvalue = [832, 47]"] ;
129 -> 189 ;
190 [label="ProductID <= 2.5\ngini = 0.1\nsamples = 379\nvalue = [568, 39]"] ;
189 -> 190 ;
191 [label="gini = 0.0\nsamples = 117\nvalue = [198, 0]"] ;
190 -> 191 ;
192 [label="AccountNo <= 7888797.5\ngini = 0.2\nsamples = 262\nvalue = [370, 39]"] ;
190 -> 192 ;
193 [label="TransactionAmount <= 121.8\ngini = 0.2\nsamples = 257\nvalue = [365, 34]"] ;
192 -> 193 ;
194 [label="CIF <= 11278582.0\ngini = 0.1\nsamples = 213\nvalue = [308, 23]"] ;
193 -> 194 ;
195 [label="TransactionAmount <= 9.1\ngini = 0.1\nsamples = 194\nvalue = [286, 15]"] ;
194 -> 195 ;
196 [label="AccountNo <= 7677644.0\ngini = 0.2\nsamples = 79\nvalue = [104, 11]"] ;
195 -> 196 ;
197 [label="CardExpiryDate <= 2101.5\ngini = 0.3\nsamples = 30\nvalue = [33, 9]"] ;
196 -> 197 ;
198 [label="CIF <= 11230459.0\ngini = 0.1\nsamples = 24\nvalue = [31, 1]"] ;
197 -> 198 ;
199 [label="gini = 0.0\nsamples = 22\nvalue = [30, 0]"] ;
198 -> 199 ;
200 [label="CIF <= 11241291.0\ngini = 0.5\nsamples = 2\nvalue = [1, 1]"] ;
198 -> 200 ;
201 [label="gini = 0.0\nsamples = 1\nvalue = [0, 1]"] ;
200 -> 201 ;
202 [label="gini = 0.0\nsamples = 1\nvalue = [1, 0]"] ;
200 -> 202 ;
203 [label="Age <= 59.0\ngini = 0.3\nsamples = 6\nvalue = [2, 8]"] ;
197 -> 203 ;
204 [label="TransactionAmount <= 4.6\ngini = 0.2\nsamples = 5\nvalue = [1, 8]"] ;
203 -> 204 ;
205 [label="gini = 0.0\nsamples = 1\nvalue = [0, 3]"] ;
204 -> 205 ;
206 [label="ContactAvaliabilityID <= 1.5\ngini = 0.3\nsamples = 4\nvalue = [1, 5]"] ;
204 -> 206 ;
207 [label="gini = 0.0\nsamples = 1\nvalue = [0, 3]"] ;
206 -> 207 ;
208 [label="TransactionAmount <= 7.6\ngini = 0.4\nsamples = 3\nvalue = [1, 2]"] ;
206 -> 208 ;
209 [label="gini = 0.0\nsamples = 1\nvalue = [1, 0]"] ;
208 -> 209 ;
210 [label="gini = 0.0\nsamples = 2\nvalue = [0, 2]"] ;
208 -> 210 ;
211 [label="gini = 0.0\nsamples = 1\nvalue = [1, 0]"] ;
203 -> 211 ;
212 [label="AccountNo <= 7748843.0\ngini = 0.1\nsamples = 49\nvalue = [71, 2]"] ;
196 -> 212 ;
213 [label="gini = 0.0\nsamples = 40\nvalue = [64, 0]"] ;
212 -> 213 ;
214 [label="ContactAvaliabilityID <= 0.5\ngini = 0.3\nsamples = 9\nvalue = [7, 2]"] ;
212 -> 214 ;
215 [label="CardExpiryDate <= 2105.5\ngini = 0.4\nsamples = 6\nvalue = [4, 2]"] ;
214 -> 215 ;
216 [label="gini = 0.0\nsamples = 2\nvalue = [0, 2]"] ;
215 -> 216 ;
217 [label="gini = 0.0\nsamples = 4\nvalue = [4, 0]"] ;
215 -> 217 ;
218 [label="gini = 0.0\nsamples = 3\nvalue = [3, 0]"] ;
214 -> 218 ;
219 [label="CardExpiryDate <= 2106.5\ngini = 0.0\nsamples = 115\nvalue = [182, 4]"] ;
195 -> 219 ;
220 [label="HouseTypeID <= 0.5\ngini = 0.0\nsamples = 105\nvalue = [166, 3]"] ;
219 -> 220 ;
221 [label="CIF <= 11215256.5\ngini = 0.0\nsamples = 78\nvalue = [123, 1]"] ;
220 -> 221 ;
222 [label="AccountNo <= 7454324.5\ngini = 0.0\nsamples = 31\nvalue = [51, 1]"] ;
221 -> 222 ;
223 [label="AccountNo <= 7280472.0\ngini = 0.2\nsamples = 8\nvalue = [9, 1]"] ;
222 -> 223 ;
224 [label="gini = 0.0\nsamples = 7\nvalue = [9, 0]"] ;
223 -> 224 ;
225 [label="gini = 0.0\nsamples = 1\nvalue = [0, 1]"] ;
223 -> 225 ;
226 [label="gini = 0.0\nsamples = 23\nvalue = [42, 0]"] ;
222 -> 226 ;
227 [label="gini = 0.0\nsamples = 47\nvalue = [72, 0]"] ;
221 -> 227 ;
228 [label="Age <= 59.5\ngini = 0.1\nsamples = 27\nvalue = [43, 2]"] ;
220 -> 228 ;
229 [label="gini = 0.0\nsamples = 25\nvalue = [42, 0]"] ;
228 -> 229 ;
230 [label="TransactionAmount <= 17.5\ngini = 0.4\nsamples = 2\nvalue = [1, 2]"] ;
228 -> 230 ;
231 [label="gini = 0.0\nsamples = 1\nvalue = [1, 0]"] ;
230 -> 231 ;
232 [label="gini = 0.0\nsamples = 1\nvalue = [0, 2]"] ;
230 -> 232 ;
233 [label="Age <= 52.5\ngini = 0.1\nsamples = 10\nvalue = [16, 1]"] ;
219 -> 233 ;
234 [label="gini = 0.0\nsamples = 8\nvalue = [12, 0]"] ;
233 -> 234 ;
235 [label="TransactionAmount <= 31.0\ngini = 0.3\nsamples = 2\nvalue = [4, 1]"] ;
233 -> 235 ;
236 [label="gini = 0.0\nsamples = 1\nvalue = [4, 0]"] ;
235 -> 236 ;
237 [label="gini = 0.0\nsamples = 1\nvalue = [0, 1]"] ;
235 -> 237 ;
238 [label="CardExpiryDate <= 2105.5\ngini = 0.4\nsamples = 19\nvalue = [22, 8]"] ;
194 -> 238 ;
239 [label="CIF <= 11286939.5\ngini = 0.5\nsamples = 8\nvalue = [5, 6]"] ;
238 -> 239 ;
240 [label="TransactionAmount <= 10.7\ngini = 0.3\nsamples = 6\nvalue = [5, 1]"] ;
239 -> 240 ;
241 [label="gini = 0.0\nsamples = 4\nvalue = [4, 0]"] ;
240 -> 241 ;
242 [label="TransactionAmount <= 15.5\ngini = 0.5\nsamples = 2\nvalue = [1, 1]"] ;
240 -> 242 ;
243 [label="gini = 0.0\nsamples = 1\nvalue = [0, 1]"] ;
242 -> 243 ;
244 [label="gini = 0.0\nsamples = 1\nvalue = [1, 0]"] ;
242 -> 244 ;
245 [label="gini = 0.0\nsamples = 2\nvalue = [0, 5]"] ;
239 -> 245 ;
246 [label="TransactionAmount <= 4.0\ngini = 0.2\nsamples = 11\nvalue = [17, 2]"] ;
238 -> 246 ;
247 [label="gini = 0.0\nsamples = 1\nvalue = [0, 2]"] ;
246 -> 247 ;
248 [label="gini = 0.0\nsamples = 10\nvalue = [17, 0]"] ;
246 -> 248 ;
249 [label="CardExpiryDate <= 2007.5\ngini = 0.3\nsamples = 44\nvalue = [57, 11]"] ;
193 -> 249 ;
250 [label="gini = 0.0\nsamples = 2\nvalue = [0, 4]"] ;
249 -> 250 ;
251 [label="CardExpiryDate <= 2056.5\ngini = 0.2\nsamples = 42\nvalue = [57, 7]"] ;
249 -> 251 ;
252 [label="Age <= 55.0\ngini = 0.5\nsamples = 6\nvalue = [7, 4]"] ;
251 -> 252 ;
253 [label="gini = 0.0\nsamples = 4\nvalue = [7, 0]"] ;
252 -> 253 ;
254 [label="gini = 0.0\nsamples = 2\nvalue = [0, 4]"] ;
252 -> 254 ;
255 [label="ContactAvaliabilityID <= 0.5\ngini = 0.1\nsamples = 36\nvalue = [50, 3]"] ;
251 -> 255 ;
256 [label="AccountNo <= 7789634.0\ngini = 0.2\nsamples = 9\nvalue = [13, 2]"] ;
255 -> 256 ;
257 [label="gini = 0.0\nsamples = 5\nvalue = [8, 0]"] ;
256 -> 257 ;
258 [label="TransactionAmount <= 139.5\ngini = 0.4\nsamples = 4\nvalue = [5, 2]"] ;
256 -> 258 ;
259 [label="gini = 0.4\nsamples = 3\nvalue = [4, 2]"] ;
258 -> 259 ;
260 [label="gini = 0.0\nsamples = 1\nvalue = [1, 0]"] ;
258 -> 260 ;
261 [label="AccountNo <= 7709526.5\ngini = 0.1\nsamples = 27\nvalue = [37, 1]"] ;
255 -> 261 ;
262 [label="ContactAvaliabilityID <= 1.5\ngini = 0.2\nsamples = 9\nvalue = [11, 1]"] ;
261 -> 262 ;
263 [label="gini = 0.0\nsamples = 6\nvalue = [9, 0]"] ;
262 -> 263 ;
264 [label="TransactionAmount <= 186.0\ngini = 0.4\nsamples = 3\nvalue = [2, 1]"] ;
262 -> 264 ;
265 [label="gini = 0.5\nsamples = 2\nvalue = [1, 1]"] ;
264 -> 265 ;
266 [label="gini = 0.0\nsamples = 1\nvalue = [1, 0]"] ;
264 -> 266 ;
267 [label="gini = 0.0\nsamples = 18\nvalue = [26, 0]"] ;
261 -> 267 ;
268 [label="ContactAvaliabilityID <= 1.5\ngini = 0.5\nsamples = 5\nvalue = [5, 5]"] ;
192 -> 268 ;
269 [label="TransactionAmount <= 44.4\ngini = 0.4\nsamples = 4\nvalue = [5, 2]"] ;
268 -> 269 ;
270 [label="TransactionAmount <= 8.2\ngini = 0.5\nsamples = 2\nvalue = [2, 2]"] ;
269 -> 270 ;
271 [label="gini = 0.0\nsamples = 1\nvalue = [2, 0]"] ;
270 -> 271 ;
272 [label="gini = 0.0\nsamples = 1\nvalue = [0, 2]"] ;
270 -> 272 ;
273 [label="gini = 0.0\nsamples = 2\nvalue = [3, 0]"] ;
269 -> 273 ;
274 [label="gini = 0.0\nsamples = 1\nvalue = [0, 3]"] ;
268 -> 274 ;
275 [label="CardExpiryDate <= 1808.0\ngini = 0.1\nsamples = 173\nvalue = [264, 8]"] ;
189 -> 275 ;
276 [label="TransactionAmount <= 10.8\ngini = 0.5\nsamples = 3\nvalue = [2, 2]"] ;
275 -> 276 ;
277 [label="gini = 0.0\nsamples = 1\nvalue = [0, 2]"] ;
276 -> 277 ;
278 [label="gini = 0.0\nsamples = 2\nvalue = [2, 0]"] ;
276 -> 278 ;
279 [label="ContactAvaliabilityID <= 0.5\ngini = 0.0\nsamples = 170\nvalue = [262, 6]"] ;
275 -> 279 ;
280 [label="AccountNo <= 7785033.0\ngini = 0.1\nsamples = 61\nvalue = [97, 5]"] ;
279 -> 280 ;
281 [label="gini = 0.0\nsamples = 32\nvalue = [55, 0]"] ;
280 -> 281 ;
282 [label="CardExpiryDate <= 2103.5\ngini = 0.2\nsamples = 29\nvalue = [42, 5]"] ;
280 -> 282 ;
283 [label="TransactionAmount <= 46.5\ngini = 0.5\nsamples = 4\nvalue = [4, 3]"] ;
282 -> 283 ;
284 [label="gini = 0.0\nsamples = 1\nvalue = [0, 1]"] ;
283 -> 284 ;
285 [label="gini = 0.4\nsamples = 3\nvalue = [4, 2]"] ;
283 -> 285 ;
286 [label="AccountNo <= 7789685.0\ngini = 0.1\nsamples = 25\nvalue = [38, 2]"] ;
282 -> 286 ;
287 [label="gini = 0.0\nsamples = 16\nvalue = [26, 0]"] ;
286 -> 287 ;
288 [label="TransactionAmount <= 7.5\ngini = 0.2\nsamples = 9\nvalue = [12, 2]"] ;
286 -> 288 ;
289 [label="TransactionAmount <= 2.6\ngini = 0.4\nsamples = 2\nvalue = [1, 2]"] ;
288 -> 289 ;
290 [label="gini = 0.0\nsamples = 1\nvalue = [1, 0]"] ;
289 -> 290 ;
291 [label="gini = 0.0\nsamples = 1\nvalue = [0, 2]"] ;
289 -> 291 ;
292 [label="gini = 0.0\nsamples = 7\nvalue = [11, 0]"] ;
288 -> 292 ;
293 [label="AccountNo <= 7685608.5\ngini = 0.0\nsamples = 109\nvalue = [165, 1]"] ;
279 -> 293 ;
294 [label="gini = 0.0\nsamples = 76\nvalue = [121, 0]"] ;
293 -> 294 ;
295 [label="HouseTypeID <= 0.5\ngini = 0.0\nsamples = 33\nvalue = [44, 1]"] ;
293 -> 295 ;
296 [label="TransactionAmount <= 21.7\ngini = 0.1\nsamples = 25\nvalue = [36, 1]"] ;
295 -> 296 ;
297 [label="CardExpiryDate <= 2105.0\ngini = 0.2\nsamples = 5\nvalue = [8, 1]"] ;
296 -> 297 ;
298 [label="AccountNo <= 7700448.5\ngini = 0.2\nsamples = 4\nvalue = [7, 1]"] ;
297 -> 298 ;
299 [label="TransactionAmount <= 10.9\ngini = 0.3\nsamples = 3\nvalue = [4, 1]"] ;
298 -> 299 ;
300 [label="gini = 0.0\nsamples = 1\nvalue = [3, 0]"] ;
299 -> 300 ;
301 [label="gini = 0.5\nsamples = 2\nvalue = [1, 1]"] ;
299 -> 301 ;
302 [label="gini = 0.0\nsamples = 1\nvalue = [3, 0]"] ;
298 -> 302 ;
303 [label="gini = 0.0\nsamples = 1\nvalue = [1, 0]"] ;
297 -> 303 ;
304 [label="gini = 0.0\nsamples = 20\nvalue = [28, 0]"] ;
296 -> 304 ;
305 [label="gini = 0.0\nsamples = 8\nvalue = [8, 0]"] ;
295 -> 305 ;
306 [label="TransactionAmount <= 139.5\ngini = 0.5\nsamples = 16\nvalue = [15, 11]"] ;
2 -> 306 ;
307 [label="AccountNo <= 7728754.0\ngini = 0.4\nsamples = 13\nvalue = [14, 5]"] ;
306 -> 307 ;
308 [label="CIF <= 11247840.0\ngini = 0.5\nsamples = 8\nvalue = [8, 5]"] ;
307 -> 308 ;
309 [label="CardExpiryDate <= 1959.0\ngini = 0.3\nsamples = 4\nvalue = [5, 1]"] ;
308 -> 309 ;
310 [label="gini = 0.0\nsamples = 2\nvalue = [3, 0]"] ;
309 -> 310 ;
311 [label="AccountNo <= 7322083.0\ngini = 0.4\nsamples = 2\nvalue = [2, 1]"] ;
309 -> 311 ;
312 [label="gini = 0.0\nsamples = 1\nvalue = [0, 1]"] ;
311 -> 312 ;
313 [label="gini = 0.0\nsamples = 1\nvalue = [2, 0]"] ;
311 -> 313 ;
314 [label="CIF <= 11259463.5\ngini = 0.5\nsamples = 4\nvalue = [3, 4]"] ;
308 -> 314 ;
315 [label="TransactionAmount <= 62.0\ngini = 0.5\nsamples = 3\nvalue = [3, 3]"] ;
314 -> 315 ;
316 [label="gini = 0.5\nsamples = 2\nvalue = [2, 3]"] ;
315 -> 316 ;
317 [label="gini = 0.0\nsamples = 1\nvalue = [1, 0]"] ;
315 -> 317 ;
318 [label="gini = 0.0\nsamples = 1\nvalue = [0, 1]"] ;
314 -> 318 ;
319 [label="gini = 0.0\nsamples = 5\nvalue = [6, 0]"] ;
307 -> 319 ;
320 [label="ContactAvaliabilityID <= 0.5\ngini = 0.2\nsamples = 3\nvalue = [1, 6]"] ;
306 -> 320 ;
321 [label="gini = 0.0\nsamples = 1\nvalue = [1, 0]"] ;
320 -> 321 ;
322 [label="gini = 0.0\nsamples = 2\nvalue = [0, 6]"] ;
320 -> 322 ;
323 [label="ProductID <= 2.5\ngini = 0.0\nsamples = 42\nvalue = [63, 1]"] ;
1 -> 323 ;
324 [label="gini = 0.0\nsamples = 13\nvalue = [20, 0]"] ;
323 -> 324 ;
325 [label="CIF <= 11193282.0\ngini = 0.0\nsamples = 29\nvalue = [43, 1]"] ;
323 -> 325 ;
326 [label="gini = 0.0\nsamples = 22\nvalue = [32, 0]"] ;
325 -> 326 ;
327 [label="TransactionAmount <= 5.3\ngini = 0.2\nsamples = 7\nvalue = [11, 1]"] ;
325 -> 327 ;
328 [label="gini = 0.0\nsamples = 4\nvalue = [7, 0]"] ;
327 -> 328 ;
329 [label="Age <= 38.5\ngini = 0.3\nsamples = 3\nvalue = [4, 1]"] ;
327 -> 329 ;
330 [label="gini = 0.4\nsamples = 2\nvalue = [2, 1]"] ;
329 -> 330 ;
331 [label="gini = 0.0\nsamples = 1\nvalue = [2, 0]"] ;
329 -> 331 ;
332 [label="Gender <= 0.5\ngini = 0.4\nsamples = 65\nvalue = [82, 28]"] ;
0 -> 332 [labeldistance=2.5, labelangle=-45, headlabel="False"] ;
333 [label="TransactionAmount <= 0.0\ngini = 0.4\nsamples = 62\nvalue = [80, 24]"] ;
332 -> 333 ;
334 [label="CIF <= 11302516.5\ngini = 0.4\nsamples = 19\nvalue = [10, 20]"] ;
333 -> 334 ;
335 [label="AccountNo <= 7953167.5\ngini = 0.5\nsamples = 8\nvalue = [8, 5]"] ;
334 -> 335 ;
336 [label="gini = 0.0\nsamples = 1\nvalue = [2, 0]"] ;
335 -> 336 ;
337 [label="HouseTypeID <= 0.5\ngini = 0.5\nsamples = 7\nvalue = [6, 5]"] ;
335 -> 337 ;
338 [label="AccountNo <= 7971962.5\ngini = 0.5\nsamples = 3\nvalue = [2, 2]"] ;
337 -> 338 ;
339 [label="gini = 0.0\nsamples = 1\nvalue = [0, 1]"] ;
338 -> 339 ;
340 [label="AccountNo <= 7985683.0\ngini = 0.4\nsamples = 2\nvalue = [2, 1]"] ;
338 -> 340 ;
341 [label="gini = 0.0\nsamples = 1\nvalue = [2, 0]"] ;
340 -> 341 ;
342 [label="gini = 0.0\nsamples = 1\nvalue = [0, 1]"] ;
340 -> 342 ;
343 [label="CIF <= 10934179.0\ngini = 0.5\nsamples = 4\nvalue = [4, 3]"] ;
337 -> 343 ;
344 [label="gini = 0.5\nsamples = 3\nvalue = [3, 3]"] ;
343 -> 344 ;
345 [label="gini = 0.0\nsamples = 1\nvalue = [1, 0]"] ;
343 -> 345 ;
346 [label="HouseTypeID <= 0.5\ngini = 0.2\nsamples = 11\nvalue = [2, 15]"] ;
334 -> 346 ;
347 [label="gini = 0.0\nsamples = 7\nvalue = [0, 13]"] ;
346 -> 347 ;
348 [label="gini = 0.5\nsamples = 4\nvalue = [2, 2]"] ;
346 -> 348 ;
349 [label="AccountNo <= 7946975.5\ngini = 0.1\nsamples = 43\nvalue = [70, 4]"] ;
333 -> 349 ;
350 [label="gini = 0.0\nsamples = 2\nvalue = [0, 2]"] ;
349 -> 350 ;
351 [label="Age <= 27.5\ngini = 0.1\nsamples = 41\nvalue = [70, 2]"] ;
349 -> 351 ;
352 [label="TransactionAmount <= 50.9\ngini = 0.2\nsamples = 9\nvalue = [12, 2]"] ;
351 -> 352 ;
353 [label="gini = 0.0\nsamples = 6\nvalue = [8, 0]"] ;
352 -> 353 ;
354 [label="TransactionAmount <= 68.2\ngini = 0.4\nsamples = 3\nvalue = [4, 2]"] ;
352 -> 354 ;
355 [label="gini = 0.0\nsamples = 1\nvalue = [0, 2]"] ;
354 -> 355 ;
356 [label="gini = 0.0\nsamples = 2\nvalue = [4, 0]"] ;
354 -> 356 ;
357 [label="gini = 0.0\nsamples = 32\nvalue = [58, 0]"] ;
351 -> 357 ;
358 [label="CardExpiryDate <= 2108.5\ngini = 0.4\nsamples = 3\nvalue = [2, 4]"] ;
332 -> 358 ;
359 [label="gini = 0.0\nsamples = 1\nvalue = [2, 0]"] ;
358 -> 359 ;
360 [label="gini = 0.0\nsamples = 2\nvalue = [0, 4]"] ;
358 -> 360 ;
}